{
  "metrics": {
    "accuracy": 0.7142857142857143,
    "log_loss": 1.7752099448879182,
    "brier_score": 0.2888643670562669,
    "train_games": 28.0,
    "validation_games": 7.0
  },
  "model": {
    "feature_names": [
      "is_doubleheader",
      "home_team_games_played",
      "home_team_wins",
      "home_team_losses",
      "home_team_win_pct",
      "home_team_runs_scored_avg",
      "home_team_runs_allowed_avg",
      "home_team_run_diff_avg",
      "home_team_recent_games",
      "home_team_recent_win_pct",
      "home_team_recent_runs_scored_avg",
      "home_team_recent_runs_allowed_avg",
      "home_team_recent_run_diff_avg",
      "home_team_streak",
      "home_team_home_win_pct",
      "home_team_away_win_pct",
      "home_team_home_runs_scored_avg",
      "home_team_home_runs_allowed_avg",
      "home_team_away_runs_scored_avg",
      "home_team_away_runs_allowed_avg",
      "home_team_one_run_win_pct",
      "home_team_recent3_win_pct",
      "home_team_recent5_win_pct",
      "home_team_recent3_runs_scored_avg",
      "home_team_recent3_runs_allowed_avg",
      "home_team_recent5_runs_scored_avg",
      "home_team_recent5_runs_allowed_avg",
      "home_team_pythag_win_pct",
      "home_team_rest_days",
      "home_team_played_yesterday",
      "home_team_games_last_7_days",
      "home_team_last_game_was_home",
      "home_team_last_game_margin",
      "home_team_last_game_runs_scored",
      "home_team_last_game_runs_allowed",
      "home_team_last_game_won",
      "away_team_games_played",
      "away_team_wins",
      "away_team_losses",
      "away_team_win_pct",
      "away_team_runs_scored_avg",
      "away_team_runs_allowed_avg",
      "away_team_run_diff_avg",
      "away_team_recent_games",
      "away_team_recent_win_pct",
      "away_team_recent_runs_scored_avg",
      "away_team_recent_runs_allowed_avg",
      "away_team_recent_run_diff_avg",
      "away_team_streak",
      "away_team_home_win_pct",
      "away_team_away_win_pct",
      "away_team_home_runs_scored_avg",
      "away_team_home_runs_allowed_avg",
      "away_team_away_runs_scored_avg",
      "away_team_away_runs_allowed_avg",
      "away_team_one_run_win_pct",
      "away_team_recent3_win_pct",
      "away_team_recent5_win_pct",
      "away_team_recent3_runs_scored_avg",
      "away_team_recent3_runs_allowed_avg",
      "away_team_recent5_runs_scored_avg",
      "away_team_recent5_runs_allowed_avg",
      "away_team_pythag_win_pct",
      "away_team_rest_days",
      "away_team_played_yesterday",
      "away_team_games_last_7_days",
      "away_team_last_game_was_home",
      "away_team_last_game_margin",
      "away_team_last_game_runs_scored",
      "away_team_last_game_runs_allowed",
      "away_team_last_game_won",
      "home_standings_wins",
      "home_standings_losses",
      "home_standings_games_played",
      "home_standings_win_pct",
      "home_standings_run_diff",
      "home_standings_pythag_win_pct",
      "home_standings_league_rank",
      "home_standings_league_games_back",
      "home_standings_division_rank",
      "home_standings_division_games_back",
      "away_standings_wins",
      "away_standings_losses",
      "away_standings_games_played",
      "away_standings_win_pct",
      "away_standings_run_diff",
      "away_standings_pythag_win_pct",
      "away_standings_league_rank",
      "away_standings_league_games_back",
      "away_standings_division_rank",
      "away_standings_division_games_back",
      "h2h_games",
      "h2h_recent_games",
      "h2h_home_team_recent_win_pct",
      "h2h_home_team_recent_run_diff_avg",
      "h2h_last_meeting_home_team_won",
      "home_bullpen_recent_games",
      "home_bullpen_games_with_relief",
      "home_bullpen_relievers_used",
      "home_bullpen_innings_pitched",
      "home_bullpen_era",
      "home_bullpen_whip",
      "home_bullpen_k_per_9",
      "home_bullpen_pitches",
      "home_bullpen_avg_relievers_per_game",
      "away_bullpen_recent_games",
      "away_bullpen_games_with_relief",
      "away_bullpen_relievers_used",
      "away_bullpen_innings_pitched",
      "away_bullpen_era",
      "away_bullpen_whip",
      "away_bullpen_k_per_9",
      "away_bullpen_pitches",
      "away_bullpen_avg_relievers_per_game",
      "home_pitcher_recent_appearances",
      "home_pitcher_recent_innings_pitched",
      "home_pitcher_recent_era",
      "home_pitcher_recent_whip",
      "home_pitcher_recent_k_per_9",
      "home_pitcher_recent_bb_per_9",
      "home_pitcher_recent_hr_per_9",
      "home_pitcher_recent_strikeouts",
      "home_pitcher_recent_walks",
      "home_pitcher_recent_hits_allowed",
      "home_pitcher_recent_pitches",
      "home_pitcher_recent_batters_faced",
      "home_pitcher_season_appearances",
      "home_pitcher_season_innings_pitched",
      "home_pitcher_season_era",
      "home_pitcher_season_whip",
      "home_pitcher_season_k_per_9",
      "home_pitcher_season_bb_per_9",
      "home_pitcher_season_hr_per_9",
      "home_pitcher_days_since_last_appearance",
      "home_pitcher_last_appearance_innings_pitched",
      "home_pitcher_last_appearance_earned_runs",
      "home_pitcher_last_appearance_hits",
      "home_pitcher_last_appearance_walks",
      "home_pitcher_last_appearance_strikeouts",
      "home_pitcher_last_appearance_pitches",
      "away_pitcher_recent_appearances",
      "away_pitcher_recent_innings_pitched",
      "away_pitcher_recent_era",
      "away_pitcher_recent_whip",
      "away_pitcher_recent_k_per_9",
      "away_pitcher_recent_bb_per_9",
      "away_pitcher_recent_hr_per_9",
      "away_pitcher_recent_strikeouts",
      "away_pitcher_recent_walks",
      "away_pitcher_recent_hits_allowed",
      "away_pitcher_recent_pitches",
      "away_pitcher_recent_batters_faced",
      "away_pitcher_season_appearances",
      "away_pitcher_season_innings_pitched",
      "away_pitcher_season_era",
      "away_pitcher_season_whip",
      "away_pitcher_season_k_per_9",
      "away_pitcher_season_bb_per_9",
      "away_pitcher_season_hr_per_9",
      "away_pitcher_days_since_last_appearance",
      "away_pitcher_last_appearance_innings_pitched",
      "away_pitcher_last_appearance_earned_runs",
      "away_pitcher_last_appearance_hits",
      "away_pitcher_last_appearance_walks",
      "away_pitcher_last_appearance_strikeouts",
      "away_pitcher_last_appearance_pitches"
    ],
    "means": [
      0.0,
      1.457142857142857,
      0.8571428571428571,
      0.6,
      0.59895625,
      4.640625,
      4.088540625,
      0.55208125,
      1.457142857142857,
      0.59895625,
      4.640625,
      4.088540625,
      0.55208125,
      0.34285714285714286,
      0.59895625,
      0.0,
      4.640625,
      4.088540625,
      0.0,
      0.0,
      0.8181818181818182,
      0.59895625,
      0.59895625,
      4.640625,
      4.088540625,
      4.640625,
      4.088540625,
      0.51863125,
      0.28125,
      0.65625,
      1.457142857142857,
      1.0,
      0.71875,
      4.84375,
      4.125,
      0.625,
      1.457142857142857,
      0.6,
      0.8571428571428571,
      0.40104375,
      4.088540625,
      4.640625,
      -0.55208125,
      1.457142857142857,
      0.40104375,
      4.088540625,
      4.640625,
      -0.55208125,
      -0.34285714285714286,
      0.0,
      0.40104375,
      0.0,
      0.0,
      4.088540625,
      4.640625,
      0.18181818181818182,
      0.40104375,
      0.40104375,
      4.088540625,
      4.640625,
      4.088540625,
      4.640625,
      0.48136875,
      0.28125,
      0.65625,
      1.457142857142857,
      0.0,
      -0.71875,
      4.125,
      4.84375,
      0.375,
      0.8571428571428571,
      0.6,
      1.457142857142857,
      0.5476171428571428,
      0.7428571428571429,
      0.51863125,
      7.571428571428571,
      0.8,
      3.1714285714285713,
      0.7,
      0.6,
      0.8571428571428571,
      1.457142857142857,
      0.3666685714285714,
      -0.7428571428571429,
      0.48136875,
      8.542857142857143,
      1.2142857142857142,
      2.8857142857142857,
      0.9428571428571428,
      1.457142857142857,
      1.457142857142857,
      0.59895625,
      0.55208125,
      0.625,
      1.457142857142857,
      1.457142857142857,
      5.428571428571429,
      6.09375625,
      4.0783125,
      1.397078125,
      10.516446875,
      103.90625,
      3.671875,
      1.457142857142857,
      1.457142857142857,
      5.457142857142857,
      6.32290625,
      4.6669625,
      1.47493125,
      7.7881406250000005,
      111.4375,
      3.708334375,
      1.0,
      5.20952,
      4.785237142857143,
      1.2555514285714284,
      10.069385714285714,
      3.57626,
      1.4473314285714285,
      5.771428571428571,
      2.03125,
      4.393939393939394,
      83.42857142857143,
      21.34285714285714,
      1.0,
      5.20952,
      4.785237142857143,
      1.2555514285714284,
      10.069385714285714,
      3.57626,
      1.4473314285714285,
      0.2,
      5.20952,
      2.4,
      4.142857142857143,
      1.8571428571428572,
      5.771428571428571,
      83.42857142857143,
      1.0,
      4.761894285714286,
      4.47724,
      1.38772,
      8.793437142857144,
      3.9722542857142855,
      1.09992,
      4.6,
      2.5,
      4.5,
      84.08571428571429,
      20.6,
      1.0,
      4.761894285714286,
      4.47724,
      1.38772,
      8.793437142857144,
      3.9722542857142855,
      1.09992,
      0.2,
      4.761894285714286,
      2.2285714285714286,
      4.371428571428571,
      2.0,
      4.6,
      84.08571428571429
    ],
    "scales": [
      1.0,
      0.7306692487168241,
      0.722806322324201,
      0.7250615737399726,
      0.4327319796489941,
      3.368849791100814,
      2.335930132845824,
      4.19685737773199,
      0.7306692487168241,
      0.4327319796489941,
      3.368849791100814,
      2.335930132845824,
      4.19685737773199,
      1.2860317068487885,
      0.4327319796489941,
      1.0,
      3.368849791100814,
      2.335930132845824,
      1.0,
      1.0,
      0.38569460791993504,
      0.4327319796489941,
      0.4327319796489941,
      3.368849791100814,
      2.335930132845824,
      3.368849791100814,
      2.335930132845824,
      0.332241396086396,
      0.4496092053105675,
      0.47495887979908324,
      0.7306692487168241,
      1.0,
      4.140005849935481,
      3.4740949810706097,
      2.55868618630734,
      0.4841229182759271,
      0.7306692487168241,
      0.7250615737399726,
      0.722806322324201,
      0.4327319796489942,
      2.335930132845824,
      3.368849791100814,
      4.19685737773199,
      0.7306692487168241,
      0.4327319796489942,
      2.335930132845824,
      3.368849791100814,
      4.19685737773199,
      1.2860317068487885,
      1.0,
      0.4327319796489942,
      1.0,
      1.0,
      2.335930132845824,
      3.368849791100814,
      0.385694607919935,
      0.4327319796489942,
      0.4327319796489942,
      2.335930132845824,
      3.368849791100814,
      2.335930132845824,
      3.368849791100814,
      0.332241396086396,
      0.4496092053105675,
      0.47495887979908324,
      0.7306692487168241,
      1.0,
      4.140005849935481,
      2.55868618630734,
      3.4740949810706097,
      0.4841229182759271,
      0.722806322324201,
      0.7250615737399726,
      0.7306692487168241,
      0.44645329462055827,
      5.683775692481977,
      0.332241396086396,
      4.16986271980755,
      0.7091242083423347,
      1.383282107075452,
      0.6233549779791837,
      0.7250615737399726,
      0.722806322324201,
      0.7306692487168241,
      0.4287314622540905,
      5.683775692481977,
      0.332241396086396,
      4.238212946465979,
      0.7298308442539886,
      1.4297138289367777,
      0.7631834508110332,
      0.7306692487168241,
      0.7306692487168241,
      0.4327319796489941,
      4.19685737773199,
      0.4841229182759271,
      0.7306692487168241,
      0.7306692487168241,
      3.1285388126153744,
      2.7841817647804423,
      3.34315384561775,
      0.6490619773634752,
      3.8780197267729615,
      53.06503049030972,
      0.9321461711421659,
      0.7306692487168241,
      0.7306692487168241,
      3.073786470349904,
      2.836364119006221,
      5.359386476357975,
      0.7215585598365787,
      3.702200853956618,
      58.122681405368766,
      0.8364524439595232,
      1.0,
      1.0018556299758394,
      4.683686095745268,
      0.674000892908026,
      3.785179661646033,
      2.866305353008593,
      1.76500045046881,
      2.3674665698133257,
      0.9514585842273956,
      1.953076732645093,
      8.198556368691516,
      2.6179911289040705,
      1.0,
      1.0018556299758394,
      4.683686095745268,
      0.674000892908026,
      3.785179661646033,
      2.866305353008593,
      1.76500045046881,
      0.4,
      1.0018556299758394,
      1.9302109433205186,
      2.153307849304774,
      1.0728561917439192,
      2.3674665698133257,
      8.198556368691516,
      1.0,
      0.6926880831505444,
      3.2386084988287354,
      0.5483010944466813,
      4.079830998816755,
      3.189569251557588,
      1.7434267374996208,
      2.100340108513041,
      1.349603116263656,
      1.6847062931317278,
      9.084905624390473,
      2.1672892878300436,
      1.0,
      0.6926880831505444,
      3.2386084988287354,
      0.5483010944466813,
      4.079830998816755,
      3.189569251557588,
      1.7434267374996208,
      0.4,
      0.6926880831505444,
      1.5322385917476482,
      1.8218626933634126,
      1.5675276256394517,
      2.100340108513041,
      9.084905624390473
    ],
    "weights": [
      -0.003188046153826868,
      -0.118737344511707,
      -0.19693811695022842,
      0.07802266138237045,
      0.03293143722508526,
      0.18282173316160857,
      -0.3278274562014713,
      0.32685190484101156,
      -0.1207886694287077,
      0.031081296882570452,
      0.1774681222604889,
      -0.3272354390528784,
      0.3253513887598752,
      -0.20468038709725356,
      0.025474147023468383,
      -0.005008462291970181,
      0.18755844215078474,
      -0.31172663815090135,
      0.0013953091706067722,
      -0.0018697427764751769,
      0.8226350920773926,
      0.024076732628743654,
      0.038769188526244704,
      0.18144494267370445,
      -0.32626650410755276,
      0.17833562056095706,
      -0.3232945415363615,
      -0.37727635602225,
      -0.5580423069613897,
      -0.15061372719716395,
      -0.10990498986286006,
      -0.002309183786342738,
      -0.33515609709753824,
      0.19331979219684695,
      0.8089431791807663,
      -0.054026093885471416,
      -0.10915422091196786,
      0.0844498144186036,
      -0.20303285678023075,
      -0.030733703603820797,
      -0.3206759024076231,
      0.18162876374555434,
      -0.32139004450405684,
      -0.10881772247980641,
      -0.036913100718056896,
      -0.31848187017610163,
      0.18570829460668908,
      -0.3199285906994276,
      0.21474753624540055,
      -0.0038376273111938885,
      -0.023592509586375272,
      -0.006911750221293929,
      -0.0014817069862429265,
      -0.31517529090387436,
      0.1789543884011061,
      -0.8142161763173587,
      -0.040620920713753304,
      -0.029237938830548264,
      -0.31504083354618323,
      0.1865738497186861,
      -0.31303378347767585,
      0.18188176499275266,
      0.3865314031544866,
      -0.5505567233964619,
      -0.15064458134089054,
      -0.11321140478658806,
      0.006152295993415758,
      0.3440673762790701,
      0.8164442113631738,
      0.20420248404494806,
      0.04075448106793663,
      -0.1960231920089406,
      0.08842270216670932,
      -0.10349545484410341,
      0.16142214538565747,
      0.04782863411008664,
      -0.3850639992503369,
      -0.14417366373159066,
      -0.4734888902756065,
      -0.061686685477950476,
      0.12270025978921581,
      0.07883085123665302,
      -0.20765100423361246,
      -0.10756473291034564,
      0.047381386945808936,
      -0.056294084241761376,
      0.38102375004356587,
      0.2922986860083716,
      -0.9283352916179674,
      0.45257701445849335,
      0.5931598054359116,
      -0.10548088238190134,
      -0.10664095323234112,
      0.03886901013336724,
      0.32270749437246077,
      -0.050237769788134844,
      -0.11497464196163434,
      -0.10546624213538561,
      0.2682384700835658,
      -0.05936797990868119,
      -0.13038212576193384,
      0.09096577796441589,
      0.054254676931169046,
      -0.2855125291115297,
      1.0193025506685793,
      -0.1167123696631779,
      -0.12139313650258338,
      0.29819048396189685,
      0.2645511079927447,
      -0.6957092607198203,
      -0.8737709146430067,
      -0.1374359646232784,
      -0.05503387767394963,
      0.8795455920432775,
      0.0031886405813494533,
      0.30054178586680524,
      -0.022222181465195848,
      -0.32129164192342374,
      -0.42018342861988495,
      0.34031028519294904,
      -0.010042636605346317,
      -0.38202052274744125,
      0.09757932744531607,
      -0.7715975418679408,
      -0.044264000858187685,
      0.18149461135129355,
      -0.005270426169837094,
      0.30250184511180384,
      -0.03234691330407768,
      -0.3344550731425402,
      -0.43600501245210393,
      0.3286088087648376,
      -0.015307230647787133,
      -0.1295046236497598,
      0.30002617448291324,
      -0.43910796158838,
      -0.8836160891205529,
      0.1348832524236221,
      -0.38467569049659367,
      -0.03910387572470462,
      -0.0024581939073449826,
      -0.02147049543017051,
      0.6779825945504574,
      0.32634048689249434,
      -0.49013432369487603,
      0.1145774942580348,
      0.2666202010879714,
      -0.34983083095904927,
      0.4210502160178894,
      -0.4931082724286984,
      -0.07073431650673492,
      0.020733710673952247,
      -0.008630395151660253,
      -0.006483831229311785,
      0.6721793522741164,
      0.31102162439543957,
      -0.4887375664603843,
      0.10631106206178358,
      0.27462301163160663,
      -0.1183771179698697,
      -0.008070198043583027,
      0.6910177215488239,
      0.1165392345144754,
      0.37526828753978725,
      -0.3486571798145208,
      -0.07176433505844268
    ],
    "bias": 2.1632890303087926
  }
}